svm_type c_svc
kernel_type rbf
gamma 0.0078125
nr_class 2
total_sv 36
rho 0.347191
label 1 -1
probA -2.55005
probB -0.0593703
nr_sv 17 19
SV
0.7122799559379812 1:0 2:0 3:0.026907 4:1.590581 5:10.627212 6:0 7:0 8:0.077913 9:3.018319 10:9.659068 11:0 12:0 13:0 14:0 15:0.5674 16:0 17:0 18:0 19:0 20:0.4326 21:0 22:0 23:0 24:0 25:0 
0.5987406393728892 1:0 2:0 3:1.109268 4:6.128846 5:6.500386 6:0 7:0 8:1.077092 9:1.019174 10:0.165234 11:0 12:0 13:0 14:0 15:0 16:0 17:0.329972 18:5.466002 19:3.865626 20:0 21:0 22:0.078048 23:0.764838 24:0.495514 25:0 
0.7780185520815731 1:0 2:0 3:0.118336 4:10.560485 5:16.838879 6:0 7:0 8:0.487584 9:3.731875 10:5.262841 11:0 12:0 13:0 14:0 15:0 16:0 17:0 18:0 19:0 20:0 21:0 22:0 23:0 24:0 25:0 
0.689132519630301 1:0 2:0 3:0 4:0 5:0 6:0 7:0 8:0 9:0 10:0.0627 11:0.110383 12:9.345792 13:8.069196 14:0.43603 15:1.5721 16:0.049797 17:7.434128 18:10.352849 19:1.190126 20:1.3652 21:0 22:0 23:0.006416 24:0.005284 25:0 
0.7925761712739741 1:0 2:0 3:0.01217 4:11.105859 5:6.891971 6:0 7:0 8:0.00327 9:1.026181 10:0.960549 11:0 12:0 13:0.16344 14:0.13606 15:0 16:0 17:0 18:0.96806 19:0.73244 20:0 21:0 22:0 23:0 24:0 25:0 
1.387509572288008 1:0 2:0.007942 3:0.477577 4:1.990382 5:0.032098 6:0 7:0.543044 8:1.464357 9:0.439838 10:0.003762 11:0.342968 12:0.293647 13:0.021786 14:1.011001 15:1.157499 16:3.599856 17:2.211644 18:0.016266 19:1.332248 20:1.555886 21:0.303516 22:0.904404 23:7.882614 24:16.191911 25:20.215755 
1.379905487579262 1:0 2:0 3:0 4:0 5:0 6:0 7:0.002971 8:0.020129 9:0 10:0 11:0.465507 12:2.022139 13:2.902447 14:0.271807 15:0 16:6.610319 17:15.564079 18:7.713429 19:0.396173 20:0 21:0.432214 22:0.52417 23:0.074616 24:0 25:0 
0.1097992836319086 1:0 2:0 3:0 4:0 5:0 6:0 7:0 8:0 9:0 10:0.2076 11:0 12:0 13:0 14:0.006958 15:3.128442 16:0 17:0 18:0 19:1.178296 20:3.134804 21:0 22:0 23:0 24:0.067187 25:0.276713 
1.347514343604575 1:0 2:0 3:0 4:0.082135 5:0.305164 6:0 7:6.550657 8:28.93012 9:44.094338 10:31.776085 11:0.611527 12:16.013886 13:21.409707 14:13.568495 15:9.097985 16:1.795693 17:15.656077 18:16.366161 19:3.327884 20:0.354686 21:0 22:0 23:0.034352 24:0.025048 25:0 
8.290161150079546 1:0 2:0 3:0 4:0.767814 5:0.073386 6:0 7:0 8:0 9:0.144946 10:0.817154 11:0 12:0 13:0 14:0 15:3.1967 16:0 17:0 18:0 19:0 20:0 21:0 22:0 23:0 24:0 25:0 
2.593474908250551 1:0 2:0 3:0 4:0 5:0 6:0 7:0.259014 8:0.129486 9:0 10:0 11:0 12:5.040897 13:8.192805 14:2.650798 15:0 16:0 17:1.600209 18:2.871649 19:3.433936 20:2.021806 21:0 22:0 23:0 24:1.447146 25:1.352254 
1.198917161430079 1:0 2:0 3:0.187704 4:7.908963 5:7.863133 6:0 7:0 8:0.060816 9:0.732397 10:0.246987 11:0 12:0 13:0 14:0 15:2.9243 16:0 17:0 18:0.484993 19:0.726607 20:7.0757 21:2.74942 22:10.50554 23:6.079407 24:2.454033 25:0 
1.323361378744356 1:0 2:0.024245 3:5.37147 4:11.730042 5:6.741744 6:0 7:0.904205 8:19.662239 9:20.901669 10:4.954387 11:0 12:0.000951 13:2.36225 14:3.919049 15:0.427749 16:0 17:0 18:0 19:0 20:0 21:0 22:0 23:0 24:0 25:0 
3.877080419110529 1:0 2:0 3:0 4:0 5:0 6:0 7:0 8:0 9:0 10:0 11:0 12:0 13:0 14:4.07229 15:1.54821 16:0 17:0 18:0 19:1.56825 20:0.81125 21:0 22:0 23:0 24:0 25:0 
1.103961586200933 1:0 2:0 3:5.67122 4:5.324214 5:0.038466 6:0 7:0 8:6.56364 9:7.324646 10:0.077814 11:0 12:0 13:0 14:0 15:2.7835 16:0 17:0 18:0 19:0 20:1.2165 21:0 22:0 23:0 24:0 25:0 
0.5773890858629898 1:0 2:0 3:0 4:0 5:0 6:0 7:0 8:0 9:0 10:0 11:2.3367 12:0.0792712 13:0 14:0 15:0 16:9.29841 17:0.285624 18:0 19:0 20:0 21:0 22:0 23:0 24:0 25:0 
5.263294263673401 1:0 2:0 3:0 4:0.383907 5:0.036693 6:0 7:0 8:0 9:0.072473 10:0.408577 11:1.16835 12:0.0396356 13:0 14:0 15:1.59835 16:4.649205 17:0.142812 18:0 19:0 20:0 21:0 22:0 23:0 24:0 25:0 
-0.7366094102801415 1:0 2:0 3:0 4:0 5:0 6:0 7:0 8:0 9:0 10:0.9498 11:0.513681 12:2.763257 13:2.363086 14:0.012876 15:1.0502 16:12.120995 17:29.699237 18:13.955284 19:0.024384 20:0 21:2.883244 22:4.170886 23:0.49307 24:0 25:0 
-0.6910623916020716 1:0 2:0 3:0 4:1.431001 5:1.334199 6:0 7:0.433916 8:1.001508 9:0.235076 10:0.119301 11:0 12:5.484496 13:6.2333 14:0.707904 15:0 16:0 17:0.011668 18:0.007632 19:0 20:0 21:13 22:0 23:0 24:0 25:0 
-0.6536060303162738 1:0 2:0.00636 3:0.775203 4:0.399055 5:0.484782 6:0 7:3.773199 8:24.427989 9:24.897503 10:23.041409 11:0 12:7.000892 13:17.100478 14:9.644758 15:6.026973 16:0 17:0.165129 18:0.107771 19:1.597924 20:1.550576 21:0 22:0 23:0 24:0 25:0 
-0.6380949382244835 1:0 2:0 3:0 4:0 5:0 6:0 7:3.857119 8:10.974743 9:6.078338 10:0 11:0.405608 12:17.882538 13:31.695139 14:12.108415 15:0 16:0.480412 17:7.535823 18:6.720278 19:1.261587 20:0 21:0 22:0 23:0 24:0 25:0 
-2.234693578252149 1:0 2:0 3:0 4:0 5:0 6:0 7:1.600146 8:4.18178 9:0.179973 10:0 11:0 12:3.671774 13:9.001158 14:1.351969 15:0 16:0 17:0 18:0.004362 19:0.008838 20:0 21:0 22:0 23:0 24:0 25:0 
-0.63606499410286 1:0 2:0 3:0 4:0 5:0 6:0 7:5.097866 8:15.350739 9:12.154545 10:2.41795 11:0 12:8.032474 13:22.972441 14:22.832778 15:4.320607 16:0 17:0 18:0 19:0.034017 20:0.786583 21:0 22:0 23:0 24:0 25:0 
-2.245512048049101 1:0 2:0 3:1.469502 4:8.566075 5:4.810723 6:0 7:0 8:1.000658 9:2.503465 10:0.649577 11:0 12:0 13:0 14:0 15:3.4518 16:0.037963 17:0.271598 18:0.14864 19:0 20:3.5442 21:0.152517 22:0.963802 23:2.17004 24:1.25544 25:9.004 
-0.6525216956904816 1:0 2:0 3:0 4:0 5:0 6:0 7:1.174484 8:0.860416 9:0.103188 10:0.468412 11:0.476515 12:10.983616 13:23.441736 14:26.572385 15:20.174447 16:4.018585 17:14.02798 18:17.670787 19:16.987747 20:7.0397 21:0 22:0 23:0 24:0 25:0 
-0.6529131591970049 1:0 2:0 3:0 4:0 5:0 6:0 7:0 8:0.530045 9:4.967426 10:1.81213 11:0 12:1.78822 13:15.305753 14:44.00445 15:28.362677 16:0 17:2.262238 18:8.925505 19:22.771004 20:37.252353 21:0 22:0.005722 23:0.012478 24:0 25:0 
-0.6529664314631832 1:0 2:0.021944 3:0.484475 4:0.165281 5:0.0559 6:0 7:3.275185 8:27.848044 9:18.985827 10:21.856844 11:0 12:0.594671 13:23.256146 14:24.098199 15:15.527683 16:0 17:2.279049 18:7.723739 19:4.313819 20:40.752793 21:58.11574 22:86.534331 23:52.528935 24:2.010994 25:3.5704 
-0.6525972171980248 1:0 2:0 3:0 4:0 5:0 6:0 7:5.171006 8:12.484622 9:6.599362 10:3.72591 11:0.587518 12:31.585721 13:68.767679 14:49.515901 15:16.813981 16:3.041084 17:18.085269 18:19.098895 19:8.630963 20:2.171789 21:0.141578 22:0.484325 23:0.076004 24:0.018394 25:0 
-0.6526481973163981 1:0 2:0 3:0 4:0 5:0 6:0 7:0 8:0 9:0 10:0.5817 11:1.531968 12:10.339731 13:12.043425 14:3.341676 15:0.4183 16:19.607232 17:67.249568 18:70.781895 19:22.688405 20:1.264 21:7.38564 22:20.029401 23:13.64146 24:3.359599 25:1.736 
-1.220345283095509 1:0 2:0 3:0 4:0 5:0 6:0 7:0 8:0 9:0 10:0 11:0.15425 12:0.779205 13:2.767725 14:4.52073 15:0.40209 16:1.38593 17:8.731724 18:14.195245 19:11.73223 20:1.06667 21:0 22:0.141811 23:0.122389 24:0 25:0 
-0.6500934827711092 1:0 2:0 3:0 4:0 5:0 6:0 7:0 8:0.053091 9:0.247811 10:0.018599 11:0 12:0.38154 13:9.782349 14:16.171591 15:4.551421 16:1.710128 17:23.5739 18:33.243892 19:9.499799 20:2.561381 21:0.575232 22:3.34906 23:1.280208 24:0 25:0 
-16.63283583976397 1:0 2:0 3:0 4:0 5:0 6:0 7:0 8:0 9:0 10:0 11:0.430706 12:0 13:0 14:0 15:0 16:0.569294 17:0 18:0 19:0 20:0 21:0 22:0 23:0 24:0 25:0 
-0.8869921464963243 1:0 2:0 3:0 4:0 5:0 6:0 7:0 8:0 9:0 10:0 11:7.17238 12:14.3944 13:0.828718 14:0 15:0 16:6.65565 17:16.2433 18:0.705543 19:0 20:0 21:0 22:0 23:0 24:0 25:0 
-0.1220726141438412 1:0 2:0 3:0 4:0 5:0 6:0 7:0 8:0 9:0 10:0 11:4.86019 12:0.831288 13:0.016098 14:0 15:0 16:1.03801 17:1.22642 18:0.0279941 19:0 20:0 21:0 22:0 23:0 24:0 25:0 
-0.7662778895176566 1:6.53972 2:0.117584 3:0 4:0 5:0 6:2.27518 7:0.0982244 8:0 9:0 10:0 11:11.0979 12:0.537697 13:0 14:0 15:0 16:3.71258 17:0.621106 18:0 19:0 20:0 21:0 22:0 23:0 24:0 25:0 
-0.6452091312722726 1:0 2:0 3:0 4:0 5:0 6:0.373642 7:0.288658 8:0 9:0 10:0 11:2.87613 12:4.70259 13:0.394836 14:0 15:0 16:21.5556 17:22.7991 18:0.469828 19:0 20:0 21:3.78748 22:3.69356 23:0.0585963 24:0 25:0 
